<?xml version="1.0"?>
<opencv_storage>
<cascade>
  <stageType>BOOST</stageType>
  <featureType>LBP</featureType>
  <height>46</height>
  <width>125</width>
  <stageParams>
    <boostType>GAB</boostType>
    <minHitRate>9.9000000953674316e-01</minHitRate>
    <maxFalseAlarm>5.0000000000000000e-01</maxFalseAlarm>
    <weightTrimRate>9.4999999999999996e-01</weightTrimRate>
    <maxDepth>1</maxDepth>
    <maxWeakCount>100</maxWeakCount></stageParams>
  <featureParams>
    <maxCatCount>256</maxCatCount>
    <featSize>1</featSize></featureParams>
  <stageNum>9</stageNum>
  <stages>
    <!-- stage 0 -->
    <_>
      <maxWeakCount>2</maxWeakCount>
      <stageThreshold>1.3991226442158222e-02</stageThreshold>
      <weakClassifiers>
        <_>
          <internalNodes>
            0 -1 15 1360756733 -524304 -1 -548798441 1609877916 -196617
            -213000 -1079492612</internalNodes>
          <leafValues>
            -8.5401457548141479e-01 9.2229038476943970e-01</leafValues></_>
        <_>
          <internalNodes>
            0 -1 7 285233268 -249556720 16781597 1562324993 -1879013192
            -1618476928 176310495 -74972944</internalNodes>
          <leafValues>
            -8.9808082580566406e-01 8.6800581216812134e-01</leafValues></_></weakClassifiers></_>
    <!-- stage 1 -->
    <_>
      <maxWeakCount>2</maxWeakCount>
      <stageThreshold>5.3890321403741837e-02</stageThreshold>
      <weakClassifiers>
        <_>
          <internalNodes>
            0 -1 8 1023153276 -49185 -1 -1 1962696696 -65537 -59211777
            -1095991428</internalNodes>
          <leafValues>
            -8.0097085237503052e-01 8.8114756345748901e-01</leafValues></_>
        <_>
          <internalNodes>
            0 -1 13 -784305793 -786956287 70039 -585891581 -1879047496
            -1198522240 -1735865975 -1172832072</internalNodes>
          <leafValues>
            -8.2149696350097656e-01 8.5486119985580444e-01</leafValues></_></weakClassifiers></_>
    <!-- stage 2 -->
    <_>
      <maxWeakCount>3</maxWeakCount>
      <stageThreshold>-6.4003908634185791e-01</stageThreshold>
      <weakClassifiers>
        <_>
          <internalNodes>
            0 -1 18 -9 -1371602946 -268451396 -1946222596 -8575
            -1207959553 -131084 -524297</internalNodes>
          <leafValues>
            -6.8260872364044189e-01 9.4090908765792847e-01</leafValues></_>
        <_>
          <internalNodes>
            0 -1 10 -134217729 -184552705 -1626411256 -1880097012
            -201328864 -252578831 -284729597 -210763837</internalNodes>
          <leafValues>
            -7.6509761810302734e-01 8.8866865634918213e-01</leafValues></_>
        <_>
          <internalNodes>
            0 -1 5 -754195457 -799456768 32816 290492416 -268271398
            536870912 19136648 -607260902</internalNodes>
          <leafValues>
            -8.9207690954208374e-01 8.0766719579696655e-01</leafValues></_></weakClassifiers></_>
    <!-- stage 3 -->
    <_>
      <maxWeakCount>2</maxWeakCount>
      <stageThreshold>5.1834307610988617e-02</stageThreshold>
      <weakClassifiers>
        <_>
          <internalNodes>
            0 -1 4 -8618499 -131073 1073872895 -45 2113683452 -458755
            -65537 -15671426</internalNodes>
          <leafValues>
            -7.3647058010101318e-01 8.6947369575500488e-01</leafValues></_>
        <_>
          <internalNodes>
            0 -1 12 -606079089 -939048956 163842 -1996259313 -2122078206
            -1878622207 84554241 -843593105</internalNodes>
          <leafValues>
            -8.1763935089111328e-01 8.1165516376495361e-01</leafValues></_></weakClassifiers></_>
    <!-- stage 4 -->
    <_>
      <maxWeakCount>2</maxWeakCount>
      <stageThreshold>-5.7089459151029587e-02</stageThreshold>
      <weakClassifiers>
        <_>
          <internalNodes>
            0 -1 9 17896724 1360019477 -2147467237 -585564159 147707
            -108003198 -1207621457 -74543072</internalNodes>
          <leafValues>
            -8.3870965242385864e-01 7.8030300140380859e-01</leafValues></_>
        <_>
          <internalNodes>
            0 -1 2 -1852728323 -179273455 16814429 -251592695
            -2012200739 -1701296126 -1476294507 -108677911</internalNodes>
          <leafValues>
            -8.3739250898361206e-01 7.9065209627151489e-01</leafValues></_></weakClassifiers></_>
    <!-- stage 5 -->
    <_>
      <maxWeakCount>2</maxWeakCount>
      <stageThreshold>8.1013282760977745e-03</stageThreshold>
      <weakClassifiers>
        <_>
          <internalNodes>
            0 -1 1 -33554642 -286720258 -17825816 -419758226 -32905
            -167773185 -2768 -150994961</internalNodes>
          <leafValues>
            -7.1294116973876953e-01 8.4842103719711304e-01</leafValues></_>
        <_>
          <internalNodes>
            0 -1 6 1477728191 2035290497 285344031 -249970393
            -1048530757 -939491309 403216639 -100901960</internalNodes>
          <leafValues>
            -8.4031975269317627e-01 7.7089518308639526e-01</leafValues></_></weakClassifiers></_>
    <!-- stage 6 -->
    <_>
      <maxWeakCount>2</maxWeakCount>
      <stageThreshold>1.3688425533473492e-02</stageThreshold>
      <weakClassifiers>
        <_>
          <internalNodes>
            0 -1 19 -1 -1094780681 -4 -1098121220 -27082753 -3 -164356
            -523</internalNodes>
          <leafValues>
            -7.5000000000000000e-01 8.5123968124389648e-01</leafValues></_>
        <_>
          <internalNodes>
            0 -1 17 -241712382 -1072594944 102656 -1061011456 1076035648
            1208549760 -1039785984 -206570833</internalNodes>
          <leafValues>
            -8.3225452899932861e-01 7.6368844509124756e-01</leafValues></_></weakClassifiers></_>
    <!-- stage 7 -->
    <_>
      <maxWeakCount>2</maxWeakCount>
      <stageThreshold>1.0063651716336608e-03</stageThreshold>
      <weakClassifiers>
        <_>
          <internalNodes>
            0 -1 14 -102754849 -619183984 -2134698853 -620494625
            25178282 -2147467264 -1476392805 -336010562</internalNodes>
          <leafValues>
            -8.2777780294418335e-01 7.3703706264495850e-01</leafValues></_>
        <_>
          <internalNodes>
            0 -1 16 -33558529 -1342177345 -536870927 -671088641
            536870911 -1 -167913483 -33554985</internalNodes>
          <leafValues>
            -7.3603069782257080e-01 8.6046314239501953e-01</leafValues></_></weakClassifiers></_>
    <!-- stage 8 -->
    <_>
      <maxWeakCount>3</maxWeakCount>
      <stageThreshold>-6.9007456302642822e-01</stageThreshold>
      <weakClassifiers>
        <_>
          <internalNodes>
            0 -1 0 -269488337 -2061 -16777250 -84704778 -33433205 -1
            -16777474 -185076681</internalNodes>
          <leafValues>
            -7.1497583389282227e-01 8.1481480598449707e-01</leafValues></_>
        <_>
          <internalNodes>
            0 -1 3 -799702119 -778333183 1363181587 -749239917
            -1476088959 -343783288 -783185507 -477522509</internalNodes>
          <leafValues>
            -7.3544108867645264e-01 8.2638579607009888e-01</leafValues></_>
        <_>
          <internalNodes>
            0 -1 11 -116138093 -753823677 -2147072512 -896598013
            -499023742 8552579 -1040047095 -277882273</internalNodes>
          <leafValues>
            -7.6944833993911743e-01 8.1759548187255859e-01</leafValues></_></weakClassifiers></_></stages>
  <features>
    <_>
      <rect>
        0 6 7 9</rect></_>
    <_>
      <rect>
        0 16 1 5</rect></_>
    <_>
      <rect>
        2 1 38 8</rect></_>
    <_>
      <rect>
        4 0 36 8</rect></_>
    <_>
      <rect>
        4 40 21 2</rect></_>
    <_>
      <rect>
        12 21 6 8</rect></_>
    <_>
      <rect>
        16 37 15 3</rect></_>
    <_>
      <rect>
        18 11 31 4</rect></_>
    <_>
      <rect>
        20 0 16 1</rect></_>
    <_>
      <rect>
        51 0 12 1</rect></_>
    <_>
      <rect>
        51 17 6 7</rect></_>
    <_>
      <rect>
        51 19 6 7</rect></_>
    <_>
      <rect>
        52 18 5 6</rect></_>
    <_>
      <rect>
        65 43 17 1</rect></_>
    <_>
      <rect>
        66 3 14 8</rect></_>
    <_>
      <rect>
        75 43 7 1</rect></_>
    <_>
      <rect>
        119 43 2 1</rect></_>
    <_>
      <rect>
        122 12 1 4</rect></_>
    <_>
      <rect>
        122 35 1 3</rect></_>
    <_>
      <rect>
        122 37 1 3</rect></_></features></cascade>
</opencv_storage>
